<?xml version="1.0"?>
<opencv_storage>
<my_svm type_id="opencv-ml-svm">
  <svm_type>C_SVC</svm_type>
  <kernel><type>POLY</type>
    <degree>3.4300000000000002e+00</degree>
    <gamma>1.5000000000000001e-04</gamma>
    <coef0>1.0000000000000001e-01</coef0></kernel>
  <C>1.0000000000000001e-01</C>
  <term_criteria><epsilon>2.2204460492503131e-16</epsilon>
    <iterations>100</iterations></term_criteria>
  <var_all>2</var_all>
  <var_count>2</var_count>
  <class_count>2</class_count>
  <class_labels type_id="opencv-matrix">
    <rows>1</rows>
    <cols>2</cols>
    <dt>i</dt>
    <data>
      0 1</data></class_labels>
  <sv_total>200</sv_total>
  <support_vectors>
    <_>
      4.56865005e+01 3.55989990e+01</_>
    <_>
      2.07765007e+01 1.31833000e+01</_>
    <_>
      1.73041992e+01 1.66415997e+01</_>
    <_>
      2.12910004e+01 1.41858997e+01</_>
    <_>
      2.95004997e+01 7.57014990e+00</_>
    <_>
      2.03166008e+01 1.27543001e+01</_>
    <_>
      1.00286999e+01 9.15935993e+00</_>
    <_>
      1.96648998e+01 1.01470003e+01</_>
    <_>
      1.38329000e+01 1.55291004e+01</_>
    <_>
      2.42294006e+01 5.57299995e+00</_>
    <_>
      3.33666000e+01 5.69033003e+00</_>
    <_>
      1.91515999e+01 1.22686005e+01</_>
    <_>
      1.13234997e+01 1.19884996e+01</_>
    <_>
      1.25904999e+01 2.48561993e+01</_>
    <_>
      1.92276001e+01 8.92823029e+01</_>
    <_>
      1.32453003e+01 1.68332996e+01</_>
    <_>
      2.48164997e+01 4.70955992e+00</_>
    <_>
      1.65963001e+01 1.50504999e+01</_>
    <_>
      3.09622002e+01 5.18066978e+00</_>
    <_>
      1.38607998e+01 1.70834007e+01</_>
    <_>
      1.35237999e+01 1.35768995e+01</_>
    <_>
      2.55676003e+01 8.43167019e+00</_>
    <_>
      2.78910007e+01 6.73839998e+00</_>
    <_>
      2.27947006e+01 1.02782001e+01</_>
    <_>
      2.79522991e+01 9.59321022e+00</_>
    <_>
      1.32377005e+01 5.34507990e+00</_>
    <_>
      2.58239002e+01 1.04289999e+01</_>
    <_>
      1.50537996e+01 1.01749001e+01</_>
    <_>
      1.66093006e+01 1.38020000e+01</_>
    <_>
      1.33253002e+01 4.20022011e+01</_>
    <_>
      1.53603001e+01 1.96916008e+01</_>
    <_>
      3.36736984e+01 6.44090986e+00</_>
    <_>
      2.74934998e+01 5.17538977e+00</_>
    <_>
      1.44143000e+01 8.27731018e+01</_>
    <_>
      1.35207005e+01 1.35817003e+01</_>
    <_>
      1.36246996e+01 2.06390991e+01</_>
    <_>
      2.33372993e+01 5.57228994e+00</_>
    <_>
      8.13307037e+01 6.78824997e+00</_>
    <_>
      1.51913996e+01 1.37643995e+01</_>
    <_>
      7.37956009e+01 6.98900986e+00</_>
    <_>
      5.00896988e+01 2.93545008e+00</_>
    <_>
      2.57935009e+01 5.17108011e+00</_>
    <_>
      2.93426991e+01 3.83939004e+00</_>
    <_>
      1.85475998e+01 1.72078991e+01</_>
    <_>
      2.89927006e+01 5.14010000e+00</_>
    <_>
      2.70298996e+01 8.76282024e+00</_>
    <_>
      1.64853001e+01 1.99820004e+01</_>
    <_>
      2.88103008e+01 6.88327980e+00</_>
    <_>
      1.42461996e+01 1.01528997e+01</_>
    <_>
      2.11081009e+01 1.16493998e+01</_>
    <_>
      6.80913010e+01 6.58741999e+00</_>
    <_>
      1.75358009e+01 1.95266991e+01</_>
    <_>
      1.17056999e+01 4.94052010e+01</_>
    <_>
      3.86348991e+01 5.82708979e+00</_>
    <_>
      9.10614014e+01 2.61858006e+01</_>
    <_>
      1.06788998e+01 2.61488991e+01</_>
    <_>
      4.27215996e+01 3.85681009e+00</_>
    <_>
      2.11998997e+01 5.86053991e+00</_>
    <_>
      1.62376003e+01 4.56919003e+00</_>
    <_>
      3.27224998e+01 4.42351007e+00</_>
    <_>
      1.44090996e+01 1.18993998e+00</_>
    <_>
      8.99073029e+00 1.00929003e+01</_>
    <_>
      1.57918997e+01 1.90312996e+01</_>
    <_>
      9.55156994e+00 4.05591011e+01</_>
    <_>
      2.16427002e+01 5.32893991e+00</_>
    <_>
      2.74967995e+01 5.04453993e+00</_>
    <_>
      2.30601997e+01 6.15649986e+00</_>
    <_>
      8.64144974e+01 6.28458977e+00</_>
    <_>
      3.13754005e+01 7.35220003e+00</_>
    <_>
      2.11884003e+01 5.54725981e+00</_>
    <_>
      2.56697998e+01 5.36451006e+00</_>
    <_>
      2.48495998e+01 5.08483982e+00</_>
    <_>
      2.42901001e+01 5.79671001e+00</_>
    <_>
      2.57206993e+01 6.19362020e+00</_>
    <_>
      2.08300991e+01 6.31418991e+00</_>
    <_>
      1.35342999e+01 2.17019997e+01</_>
    <_>
      2.80648003e+01 5.51036978e+00</_>
    <_>
      1.37994003e+01 6.70133972e+01</_>
    <_>
      3.39888992e+01 6.83826017e+00</_>
    <_>
      6.47790985e+01 6.35964012e+00</_>
    <_>
      1.85706997e+01 1.38086996e+01</_>
    <_>
      1.68286991e+01 9.01662979e+01</_>
    <_>
      5.53889999e+01 3.99100995e+00</_>
    <_>
      2.15564003e+01 1.16234999e+01</_>
    <_>
      2.52903004e+01 7.20463991e+00</_>
    <_>
      2.72257004e+01 6.13395023e+00</_>
    <_>
      1.62404003e+01 8.17753983e+00</_>
    <_>
      3.82636986e+01 5.28515005e+00</_>
    <_>
      1.60235004e+01 1.50538998e+01</_>
    <_>
      6.10760994e+01 5.54168987e+00</_>
    <_>
      1.25539999e+01 2.16772995e+01</_>
    <_>
      1.22644997e+01 2.51688004e+01</_>
    <_>
      1.85258999e+01 1.21364002e+01</_>
    <_>
      2.00583992e+01 1.24820004e+01</_>
    <_>
      1.89554996e+01 2.78150010e+00</_>
    <_>
      1.45141001e+01 1.66853008e+01</_>
    <_>
      1.42660999e+01 1.90011005e+01</_>
    <_>
      1.74116001e+01 9.44612026e+00</_>
    <_>
      1.43499002e+01 2.63507004e+01</_>
    <_>
      1.43149004e+01 1.87229996e+01</_>
    <_>
      5.78235006e+00 5.21919988e-02</_>
    <_>
      7.15708008e+01 2.23915000e-02</_>
    <_>
      5.05928993e+01 2.13573003e+00</_>
    <_>
      7.70245972e+01 2.41499996e+00</_>
    <_>
      1.94144001e+01 8.92607975e+00</_>
    <_>
      1.27427998e+01 6.13138008e+01</_>
    <_>
      1.98334007e+01 4.43909979e+00</_>
    <_>
      5.37142982e+01 3.63212991e+00</_>
    <_>
      1.06171999e+01 3.53647003e+01</_>
    <_>
      8.94892979e+00 5.18759003e+01</_>
    <_>
      6.87290001e+00 6.29746017e+01</_>
    <_>
      1.04254999e+01 1.24730997e+01</_>
    <_>
      1.57289000e+01 9.03783989e+00</_>
    <_>
      1.21724005e+01 1.08051996e+01</_>
    <_>
      1.75035992e+01 5.61076021e+00</_>
    <_>
      9.65102005e+00 2.05464993e+01</_>
    <_>
      1.13701000e+01 1.34960003e+01</_>
    <_>
      1.24039001e+01 3.40779991e+01</_>
    <_>
      2.22868004e+01 4.26718998e+00</_>
    <_>
      9.73079014e+00 1.54313002e+01</_>
    <_>
      1.09583998e+01 4.53030014e+01</_>
    <_>
      5.39546013e+01 1.78646004e+00</_>
    <_>
      2.36156006e+01 4.02841997e+00</_>
    <_>
      1.04414997e+01 1.58825998e+01</_>
    <_>
      1.30441999e+01 8.53450966e+00</_>
    <_>
      1.42245998e+01 6.28668022e+00</_>
    <_>
      1.20593004e+01 8.43080044e+00</_>
    <_>
      7.71509981e+00 8.45709991e+01</_>
    <_>
      3.93641014e+01 2.81954002e+00</_>
    <_>
      9.35723972e+00 4.05589981e+01</_>
    <_>
      1.92441006e+01 9.47119045e+00</_>
    <_>
      9.57402992e+00 2.83696995e+01</_>
    <_>
      8.73725986e+00 3.82477989e+01</_>
    <_>
      2.05709991e+01 4.19744015e+00</_>
    <_>
      4.53135986e+01 2.69101000e+00</_>
    <_>
      6.72003021e+01 3.32655001e+00</_>
    <_>
      1.51592999e+01 6.45935011e+00</_>
    <_>
      1.58820000e+01 8.75876999e+00</_>
    <_>
      2.66940002e+01 3.35112000e+00</_>
    <_>
      1.96599007e+01 9.91213989e+00</_>
    <_>
      1.00081997e+01 2.52830009e+01</_>
    <_>
      5.34342995e+01 3.30257010e+00</_>
    <_>
      5.80629997e+01 4.56702995e+00</_>
    <_>
      4.65438995e+01 1.87788999e+00</_>
    <_>
      5.21160011e+01 2.54579997e+00</_>
    <_>
      2.34452991e+01 3.52551007e+00</_>
    <_>
      1.95984001e+01 8.64881992e+00</_>
    <_>
      1.86149998e+01 5.55441999e+00</_>
    <_>
      8.26902962e+00 7.56445007e+01</_>
    <_>
      1.75489006e+01 5.18564987e+00</_>
    <_>
      1.23612003e+01 2.16767998e+01</_>
    <_>
      1.92553997e+01 5.19650984e+00</_>
    <_>
      1.14019003e+01 1.06444998e+01</_>
    <_>
      2.12621994e+01 4.55247021e+00</_>
    <_>
      1.96721992e+01 5.85664988e+00</_>
    <_>
      4.01510000e+00 6.05709991e+01</_>
    <_>
      2.22273998e+01 3.81322002e+00</_>
    <_>
      4.74925003e+01 2.91056991e+00</_>
    <_>
      1.93652992e+01 8.25835991e+00</_>
    <_>
      6.11510010e+01 1.71904004e+00</_>
    <_>
      2.88966007e+01 4.52369022e+00</_>
    <_>
      1.84552002e+01 4.66821003e+00</_>
    <_>
      1.22721996e+01 2.71630993e+01</_>
    <_>
      2.81410999e+01 4.06643009e+00</_>
    <_>
      1.23550997e+01 7.67526016e+01</_>
    <_>
      9.94851017e+00 1.60266991e+01</_>
    <_>
      5.28578987e+01 2.45556998e+00</_>
    <_>
      1.72506008e+01 6.50126982e+00</_>
    <_>
      1.12468004e+01 1.28817997e+01</_>
    <_>
      5.38992004e+01 3.28259993e+00</_>
    <_>
      3.04223995e+01 3.52494001e+00</_>
    <_>
      1.28731003e+01 1.54677000e+01</_>
    <_>
      1.87511997e+01 4.75160980e+00</_>
    <_>
      1.62731991e+01 9.56416988e+00</_>
    <_>
      3.10489998e+01 4.22307014e+00</_>
    <_>
      8.31013031e+01 2.10097003e+00</_>
    <_>
      9.61837006e+00 1.71264992e+01</_>
    <_>
      2.68127995e+01 4.30319023e+00</_>
    <_>
      2.05307999e+01 4.72786999e+00</_>
    <_>
      3.31523018e+01 4.22161007e+00</_>
    <_>
      4.62047005e+01 2.29252005e+00</_>
    <_>
      3.20471992e+01 4.91346979e+00</_>
    <_>
      1.19094000e+01 2.55769997e+01</_>
    <_>
      1.84853001e+01 4.58450985e+00</_>
    <_>
      1.07873001e+01 3.72949982e+01</_>
    <_>
      1.17329998e+01 3.69161987e+01</_>
    <_>
      5.97257996e+01 1.67400002e+00</_>
    <_>
      1.73943996e+01 8.35739994e+00</_>
    <_>
      1.99190998e+01 7.86183023e+00</_>
    <_>
      1.80858002e+01 6.54618979e+00</_>
    <_>
      1.02439003e+01 2.77868004e+01</_>
    <_>
      1.17968998e+01 3.67046013e+01</_>
    <_>
      1.29427004e+01 2.02203999e+01</_>
    <_>
      3.70588989e+01 4.99430990e+00</_>
    <_>
      1.29442997e+01 1.15510998e+01</_>
    <_>
      1.28590002e+01 2.33381004e+01</_>
    <_>
      1.00783005e+01 3.84640007e+01</_>
    <_>
      1.09870005e+01 3.97223015e+01</_>
    <_>
      3.71628990e+01 3.43653011e+00</_>
    <_>
      7.12639999e+01 2.29239988e+00</_></support_vectors>
  <decision_functions>
    <_>
      <sv_count>200</sv_count>
      <rho>3.5334881700692100e-03</rho>
      <alpha>
        1.0000000000000001e-01 1.0000000000000001e-01
        1.0000000000000001e-01 1.0000000000000001e-01
        1.0000000000000001e-01 1.0000000000000001e-01
        1.0000000000000001e-01 1.0000000000000001e-01
        1.0000000000000001e-01 1.0000000000000001e-01
        1.0000000000000001e-01 1.0000000000000001e-01
        1.0000000000000001e-01 1.0000000000000001e-01
        1.0000000000000001e-01 1.0000000000000001e-01
        1.0000000000000001e-01 1.0000000000000001e-01
        1.0000000000000001e-01 1.0000000000000001e-01
        1.0000000000000001e-01 1.0000000000000001e-01
        1.0000000000000001e-01 1.0000000000000001e-01
        1.0000000000000001e-01 1.0000000000000001e-01
        1.0000000000000001e-01 1.0000000000000001e-01
        1.0000000000000001e-01 1.0000000000000001e-01
        1.0000000000000001e-01 1.0000000000000001e-01
        1.0000000000000001e-01 1.0000000000000001e-01
        1.0000000000000001e-01 1.0000000000000001e-01
        1.0000000000000001e-01 1.0000000000000001e-01
        1.0000000000000001e-01 1.0000000000000001e-01
        1.0000000000000001e-01 1.0000000000000001e-01
        1.0000000000000001e-01 1.0000000000000001e-01
        1.0000000000000001e-01 1.0000000000000001e-01
        1.0000000000000001e-01 1.0000000000000001e-01
        1.0000000000000001e-01 1.0000000000000001e-01
        1.0000000000000001e-01 1.0000000000000001e-01
        1.0000000000000001e-01 1.0000000000000001e-01
        1.0000000000000001e-01 1.0000000000000001e-01
        1.0000000000000001e-01 1.0000000000000001e-01
        1.0000000000000001e-01 1.0000000000000001e-01
        1.0000000000000001e-01 1.0000000000000001e-01
        1.0000000000000001e-01 1.0000000000000001e-01
        1.0000000000000001e-01 1.0000000000000001e-01
        1.0000000000000001e-01 1.0000000000000001e-01
        1.0000000000000001e-01 1.0000000000000001e-01
        1.0000000000000001e-01 1.0000000000000001e-01
        1.0000000000000001e-01 1.0000000000000001e-01
        1.0000000000000001e-01 1.0000000000000001e-01
        1.0000000000000001e-01 1.0000000000000001e-01
        1.0000000000000001e-01 1.0000000000000001e-01
        1.0000000000000001e-01 1.0000000000000001e-01
        1.0000000000000001e-01 1.0000000000000001e-01
        1.0000000000000001e-01 1.0000000000000001e-01
        1.0000000000000001e-01 1.0000000000000001e-01
        1.0000000000000001e-01 1.0000000000000001e-01
        1.0000000000000001e-01 1.0000000000000001e-01
        1.0000000000000001e-01 1.0000000000000001e-01
        1.0000000000000001e-01 1.0000000000000001e-01
        1.0000000000000001e-01 1.0000000000000001e-01
        1.0000000000000001e-01 1.0000000000000001e-01
        -1.0000000000000001e-01 -1.0000000000000001e-01
        -1.0000000000000001e-01 -1.0000000000000001e-01
        -1.0000000000000001e-01 -1.0000000000000001e-01
        -1.0000000000000001e-01 -1.0000000000000001e-01
        -1.0000000000000001e-01 -1.0000000000000001e-01
        -1.0000000000000001e-01 -1.0000000000000001e-01
        -1.0000000000000001e-01 -1.0000000000000001e-01
        -1.0000000000000001e-01 -1.0000000000000001e-01
        -1.0000000000000001e-01 -1.0000000000000001e-01
        -1.0000000000000001e-01 -1.0000000000000001e-01
        -1.0000000000000001e-01 -1.0000000000000001e-01
        -1.0000000000000001e-01 -1.0000000000000001e-01
        -1.0000000000000001e-01 -1.0000000000000001e-01
        -1.0000000000000001e-01 -1.0000000000000001e-01
        -1.0000000000000001e-01 -1.0000000000000001e-01
        -1.0000000000000001e-01 -1.0000000000000001e-01
        -1.0000000000000001e-01 -1.0000000000000001e-01
        -1.0000000000000001e-01 -1.0000000000000001e-01
        -1.0000000000000001e-01 -1.0000000000000001e-01
        -1.0000000000000001e-01 -1.0000000000000001e-01
        -1.0000000000000001e-01 -1.0000000000000001e-01
        -1.0000000000000001e-01 -1.0000000000000001e-01
        -1.0000000000000001e-01 -1.0000000000000001e-01
        -1.0000000000000001e-01 -1.0000000000000001e-01
        -1.0000000000000001e-01 -1.0000000000000001e-01
        -1.0000000000000001e-01 -1.0000000000000001e-01
        -1.0000000000000001e-01 -1.0000000000000001e-01
        -1.0000000000000001e-01 -1.0000000000000001e-01
        -1.0000000000000001e-01 -1.0000000000000001e-01
        -1.0000000000000001e-01 -1.0000000000000001e-01
        -1.0000000000000001e-01 -1.0000000000000001e-01
        -1.0000000000000001e-01 -1.0000000000000001e-01
        -1.0000000000000001e-01 -1.0000000000000001e-01
        -1.0000000000000001e-01 -1.0000000000000001e-01
        -1.0000000000000001e-01 -1.0000000000000001e-01
        -1.0000000000000001e-01 -1.0000000000000001e-01
        -1.0000000000000001e-01 -1.0000000000000001e-01
        -1.0000000000000001e-01 -1.0000000000000001e-01
        -1.0000000000000001e-01 -1.0000000000000001e-01
        -1.0000000000000001e-01 -1.0000000000000001e-01
        -1.0000000000000001e-01 -1.0000000000000001e-01
        -1.0000000000000001e-01 -1.0000000000000001e-01
        -1.0000000000000001e-01 -1.0000000000000001e-01
        -1.0000000000000001e-01 -1.0000000000000001e-01
        -1.0000000000000001e-01 -1.0000000000000001e-01
        -1.0000000000000001e-01 -1.0000000000000001e-01
        -1.0000000000000001e-01 -1.0000000000000001e-01
        -1.0000000000000001e-01 -1.0000000000000001e-01
        -1.0000000000000001e-01 -1.0000000000000001e-01
        -1.0000000000000001e-01 -1.0000000000000001e-01</alpha>
      <index>
        0 1 2 3 4 5 6 7 8 9 10 11 12 13 14 15 16 17 18 19 20 21 22 23 24
        25 26 27 28 29 30 31 32 33 34 35 36 37 38 39 40 41 42 43 44 45
        46 47 48 49 50 51 52 53 54 55 56 57 58 59 60 61 62 63 64 65 66
        67 68 69 70 71 72 73 74 75 76 77 78 79 80 81 82 83 84 85 86 87
        88 89 90 91 92 93 94 95 96 97 98 99 100 101 102 103 104 105 106
        107 108 109 110 111 112 113 114 115 116 117 118 119 120 121 122
        123 124 125 126 127 128 129 130 131 132 133 134 135 136 137 138
        139 140 141 142 143 144 145 146 147 148 149 150 151 152 153 154
        155 156 157 158 159 160 161 162 163 164 165 166 167 168 169 170
        171 172 173 174 175 176 177 178 179 180 181 182 183 184 185 186
        187 188 189 190 191 192 193 194 195 196 197 198 199</index></_></decision_functions></my_svm>
</opencv_storage>
